,0,1,2,3,4,5,6,7,8,9,10,11,12,13,14,15,16,17,18,19
NEE,-0.1663112856728973,-0.16631128567289666,0.24969604214398788,0.24969604214398933,-0.5762282054603644,0.5762282054603566,0.2597733388091508,0.25977333880915077,-0.10232942133781621,0.10232942133783463,-0.0,-0.0,0.0,0.0,-0.0,0.0,0.0,0.0,-0.0,0.0
SO,-0.37983758111680727,-0.3798375811168056,0.17808739955916653,0.17808739955916536,-0.1290925928513566,0.12909259285135122,0.09538974944159348,0.0953897494416077,0.31402485752966236,-0.31402485752967013,0.42131078407950745,-0.4213107840795079,-0.0018043725341545403,0.0018043725341510748,-0.10899327118679752,-0.10899327118679787,-0.031208948531045867,0.031208948531045954,-0.09629648457290498,-0.0962964845729047
SRE,-0.2868375856115694,-0.28683758561156986,0.12092437728804376,0.12092437728804534,0.3655571660821575,-0.3655571660821585,-0.23987030184005456,-0.23987030184006755,0.18161321028725866,-0.18161321028723812,-0.020327919588657914,0.02032791958865713,0.04483657213484752,-0.044836572134850226,-0.3717217075099647,-0.3717217075099638,0.05391494860822477,-0.05391494860822766,-0.18825764498464775,-0.1882576449846493
DUK,-0.36126693576062674,-0.36126693576062524,0.2988171983578944,0.2988171983578917,-0.2127181125231618,0.21271811252316594,0.23960769411200483,0.23960769411201005,0.26632584837955936,-0.2663258483795462,0.26380426946156227,-0.263804269461562,0.14517112817469122,-0.14517112817469396,-0.10607556050126629,-0.10607556050126446,0.06354662572018328,-0.06354662572018688,0.02542903627249304,0.025429036272492943
XEL,-0.42729723477144727,-0.42729723477144577,0.28307630928845,0.28307630928844985,-0.18445474059494762,0.18445474059494252,0.31933624926184667,0.3193362492618455,0.022075670514415714,-0.0220756705143893,0.10961809350998519,-0.10961809350998633,-0.2038224631704491,0.20382246317045022,-0.16141146671195772,-0.16141146671195583,0.050632496690201485,-0.050632496690207134,0.13645994065017708,0.13645994065018252
D,-0.35997200724206263,-0.3599720072420624,0.26845293224263445,0.2684529322426349,0.2140790542962956,-0.21407905429629465,-0.2624645676942747,-0.26246456769427373,0.06804529487403614,-0.0680452948740479,0.0957769737944407,-0.09577697379444194,-0.14024966630478675,0.1402496663047854,-0.30891938434409855,-0.3089193843440953,0.22280942829390138,-0.2228094282939106,0.07132390389343311,0.07132390389344273
CNP,-0.28054881087413136,-0.28054881087413114,0.03775143836770563,0.03775143836770498,0.01499613745073371,-0.014996137450734841,0.0686533597845463,0.06865335978455421,0.4353154659702,-0.43531546597019694,0.1257125006150748,-0.12571250061507572,0.22614689763292656,-0.22614689763292656,-0.3903762967265756,-0.39037629672657526,0.03084048071560836,-0.030840480715617215,0.07168424053209246,0.07168424053209681
PEG,-0.2542357739102631,-0.2542357739102623,-0.05625313946024491,-0.05625313946024437,-0.3795016838963121,0.3795016838963085,0.16316136692724031,0.1631613669272455,0.01446685958484267,-0.014466859584827482,0.13764777446047494,-0.13764777446047619,-0.11290451834048078,0.11290451834047711,-0.4540009782430979,-0.4540009782430953,-0.14961873352860897,0.14961873352860952,0.033916250635299725,0.033916250635288754
AEP,-0.2783230405741957,-0.27832304057419494,0.29853055351020974,0.2985305535102095,-0.1272999864638226,0.12729998646381852,-0.07310205453947213,-0.07310205453947256,-0.16860598875667682,0.16860598875668098,0.195983303441175,-0.1959833034411762,-0.2205034171379404,0.22050341713794167,-0.1660296770725393,-0.16602967707253766,0.10527720681733473,-0.10527720681734357,0.3971879418976955,0.39718794189769646
EXC,-0.2963649882607682,-0.29636498826076746,0.12286608022315663,0.12286608022315555,-0.2714878606272936,0.2714878606272915,0.04690839166269979,0.04690839166270789,0.3487666332288621,-0.34876663322885154,0.3781231067054075,-0.37812310670540794,0.0866432992026928,-0.0866432992026962,-0.15055473627973046,-0.15055473627972893,0.010161526552391291,-0.01016152655239807,0.162090621487561,0.1620906214875582
COST,-0.2615789509340497,-0.2615789509340493,0.21236658458847335,0.21236658458847243,0.08797755847378665,-0.08797755847378876,-0.07240943099609991,-0.07240943099611034,-0.49755480902916716,0.49755480902915744,0.192744789345953,-0.19274478934595282,0.04564056832960678,-0.04564056832960645,0.04419546631334729,0.04419546631334279,-0.1437064440288263,0.143706444028836,-0.25316896552046103,-0.2531689655204733
PEP,-0.41560594966032227,-0.41560594966032144,0.20793356356775505,0.20793356356775275,-0.34143357063725027,0.3414335706372521,0.07901059657336372,0.07901059657335469,-0.09823047201527392,0.0982304720152944,-0.012041792358045684,0.01204179235804622,-0.3410451708058577,0.34104517080585117,-0.04101687758174667,-0.04101687758175182,-0.09804508793485729,0.09804508793485325,0.15431949902631642,0.15431949902630906
CL,-0.40371534374712975,-0.40371534374712953,0.16582815537854012,0.16582815537853934,0.1641572001918899,-0.16415720019188637,0.09140617623227396,0.09140617623226993,0.00948549900396581,-0.009485499003963756,0.15781700889041722,-0.1578170088904185,-1.1388894014693717e-05,1.1388894016007143e-05,-0.22256082924530093,-0.222560829245296,0.3614226403191849,-0.36142264031921006,0.2627859165039186,0.26278591650393496
HSY,-0.1573453921572734,-0.1573453921572735,-0.27959893270103114,-0.2795989327010306,-0.049111659133210944,0.04911165913321417,-0.05205548389886642,-0.05205548389886598,-0.11688191030464783,0.11688191030464169,0.28928796729641415,-0.2892879672964142,0.3464799066329833,-0.3464799066329875,-0.3590321947706142,-0.359032194770616,-0.03025084584629672,0.030250845846288336,0.2114915381214572,0.21149153812145194
MKC,-0.4128942538584909,-0.41289425385849043,0.3506844883659548,0.3506844883659557,0.27154570271823747,-0.2715457027182355,-0.16142038398552566,-0.16142038398553518,-0.22519853495157977,0.22519853495155637,0.11567957681128914,-0.11567957681129036,-0.057120206388772965,0.0571202063887761,-0.14647276155208308,-0.14647276155208025,0.0763568093532347,-0.07635680935323691,0.11000736745601396,0.11000736745603046
PG,-0.3336371200174302,-0.33363712001742957,0.17179675430858957,0.17179675430858912,-0.07435947352491419,0.07435947352490954,-0.03896098991624319,-0.03896098991625493,-0.4274538721524162,0.42745387215243297,-0.0316332839099229,0.03163328390992207,-0.34612210132563004,0.3461221013256305,-0.0956141128241303,-0.09561411282413017,0.1212657972184827,-0.12126579721848198,0.1573512588957531,0.15735125889574275
KO,-0.11648981060127393,-0.1164898106012732,0.4616095217657953,0.4616095217657937,-0.19256856496556599,0.19256856496556451,0.21416716832555754,0.21416716832556046,0.1196492699673602,-0.11964926996736142,-0.1248327002220067,0.1248327002220076,0.08878447146262707,-0.08878447146262748,0.17064360979168824,0.17064360979168633,0.1056626113623063,-0.10566261136230942,0.33515799709357125,0.3351579970935605
KMB,-0.17217636010498788,-0.1721763601049873,0.16671703990091838,0.16671703990091857,-0.05745004530842243,0.057450045308415895,0.22986192262391036,0.2298619226239095,-0.066249589086713,0.0662495890866923,-0.08476324028089237,0.08476324028089159,-0.3162284776124059,0.3162284776124034,-0.2569443402810493,-0.25694434028104746,0.4392176836089746,-0.4392176836090025,0.1261621410801474,0.12616214108018955
GIS,-0.04717093959748681,-0.047170939597487,0.08295900386337977,0.0829590038633807,0.41256148511339763,-0.41256148511340063,0.10310764378292334,0.10310764378291126,-0.45087937271531997,0.45087937271530726,-0.02584855841724059,0.025848558417240035,-0.11060766558464694,0.11060766558464616,-0.06611676942016277,-0.06611676942015966,0.29796502072466,-0.29796502072466197,-0.026562148963369236,-0.026562148963355982
WMT,-0.27799276795150935,-0.2779927679515088,0.3356169735851116,0.3356169735851111,0.10420058888719422,-0.10420058888719964,0.1204269625431017,0.12042696254309301,-0.3557996729009455,0.355799672900957,-0.05742586637950922,0.05742586637950878,-0.15989633887762597,0.1598963388776295,0.119732421782135,0.11973242178213697,-0.03451426205608112,0.03451426205609,-0.33724736961614626,-0.3372473696161545
AXP,-0.11790416073043163,-0.11790416073043174,-0.265342763921838,-0.2653427639218387,-0.1366654742453043,0.13666547424530479,-0.00974569438218406,-0.009745694382186193,-0.21303339095047324,0.21303339095048415,-0.20597955209824706,0.20597955209824842,0.4911765040785992,-0.4911765040786015,-0.03978735223276739,-0.039787352232769656,-0.0033419277865441768,0.0033419277865413015,-0.25741024557452274,-0.25741024557450976
GS,-0.13868273800487022,-0.13868273800487013,-0.059434453498187684,-0.05943445349818849,-0.14179617365882433,0.14179617365882718,-0.1887895554394047,-0.1887895554393941,0.05148201216522665,-0.0514820121652481,-0.46637142995608233,0.4663714299560828,-0.033111360707813876,0.03311136070781231,-0.356399973169704,-0.3563999731697096,-0.2705083544399682,0.27050835443995075,0.006497049221438933,0.006497049221471211
JPM,-0.18337581501843994,-0.18337581501843989,0.004060517040074921,0.004060517040074985,0.10162324819518735,-0.10162324819518512,-0.3559885626575499,-0.35598856265754286,0.2807414606197224,-0.2807414606197194,-0.33450074270962893,0.33450074270962926,0.261780588330452,-0.2617805883304511,-0.0324917907464637,-0.03249179074646031,0.1578725241484069,-0.15787252414840464,-0.20996818805056908,-0.20996818805056378
MS,-0.2084522571741531,-0.20845225717415297,-0.02097000694702724,-0.02097000694702896,-0.15155513962331407,0.15155513962331815,-0.35800122359853187,-0.35800122359853115,0.1581874788039477,-0.15818747880394185,-0.3695382071741556,0.36953820717415603,0.29897898701580233,-0.2989789870158016,-0.08987055675613487,-0.08987055675613308,-0.023579173274365692,0.02357917327436667,-0.21300512850765438,-0.213005128507647
BAC,-0.06054334356483894,-0.06054334356483872,0.09948228094924333,0.09948228094924107,-0.22911223457293645,0.22911223457293853,-0.15034966929909155,-0.15034966929907906,0.2191171446461274,-0.21911714464613627,-0.4532673988629515,0.45326739886295203,0.22178985119968836,-0.2217898511996872,-0.04404185282988023,-0.0440418528298793,-0.09369837812927123,0.0936983781292673,-0.31299660274194085,-0.31299660274192953
V,-0.2273229139817071,-0.2273229139817072,-0.3264588320764706,-0.3264588320764711,-0.1705719990559076,0.1705719990559148,0.18330226610586514,0.18330226610587222,-0.005602887318252679,0.005602887318236435,0.13760789070684953,-0.13760789070684906,0.3652926738715561,-0.3652926738715537,0.1853626820187402,0.1853626820187409,0.1554228148524685,-0.155422814852471,0.2610225264981764,0.2610225264981736
BLK,-0.48881850199165905,-0.4888185019916591,-0.2053312184320836,-0.20533121843208763,-0.045231354525022666,0.04523135452502399,0.18158970324035656,0.18158970324036583,0.08612611878796024,-0.0861261187879671,-0.15331621723586086,0.1533162172358605,-0.27136489532509167,0.27136489532509517,-0.00254637565911061,-0.002546375659111011,-0.15215512754617613,0.15215512754617241,0.23696987784390713,0.23696987784389767
BRK-A,-0.21839807867897468,-0.2183980786789749,-0.37100301403744856,-0.37100301403745095,-0.21526593501077787,0.21526593501078622,-0.03271230395149819,-0.032712303951496,-0.048643291166147073,0.048643291166143326,-0.14822658086982474,0.14822658086982465,0.3175591174871542,-0.3175591174871537,-0.12688262867256628,-0.12688262867256211,0.34054000623295044,-0.3405400062329432,-0.10000872833672596,-0.10000872833673996
MA,-0.2794637478985047,-0.27946374789850476,-0.28848781641471904,-0.2884878164147196,-0.0010566911728899383,0.0010566911728914505,0.15405799105743004,0.15405799105742451,-0.17796213730623317,0.17796213730624724,-0.16227678156953879,0.16227678156954,0.18777482176776517,-0.18777482176776497,0.2926086705108007,0.2926086705107996,0.1371065269584789,-0.13710652695848607,0.34242972790354204,0.3424297279035567
C,-0.06851816347062607,-0.06851816347062589,-0.02139862196622784,-0.0213986219662278,-0.17409739946639774,0.17409739946640154,-0.3094393983355151,-0.3094393983355172,0.09722029086675231,-0.09722029086674655,-0.519131047850864,0.5191310478508646,0.07806750999732752,-0.07806750999732738,-0.09840813931286486,-0.09840813931286553,-0.13572969054102685,0.13572969054102207,-0.23586995954516443,-0.235869959545144
HON,-0.2021167272576186,-0.20211672725761823,0.23377015401069054,0.23377015401068849,-0.058333710631646336,0.05833371063164825,0.10467009738041672,0.10467009738041264,0.18471910257387658,-0.18471910257387006,-0.4813431822259772,0.48134318222597783,0.2695835560418266,-0.26958355604182604,-0.1912254597912327,-0.19122545979123196,-0.11194846498440736,0.11194846498441514,0.05054065364425701,0.05054065364422799
CAT,0.03071354336791563,0.030713543367915836,0.1311955736769981,0.1311955736770014,0.16992372174828108,-0.1699237217482866,0.3935741525362258,0.39357415253623096,0.13500137508606655,-0.13500137508606166,-0.44839354798115605,0.4483935479811566,0.22779966707213437,-0.22779966707213226,0.0963489720018701,0.09634897200187426,0.11445792014718155,-0.11445792014717308,-0.0671650324892485,-0.06716503248927894
UNP,-0.11290600807672789,-0.11290600807672815,-0.004962095715851773,-0.004962095715851251,0.2477139724513814,-0.2477139724513792,-0.3423018331869237,-0.34230183318690993,0.06361183757946612,-0.06361183757949153,-0.28256861536427896,0.28256861536427885,-0.2562328689307627,0.25623286893075825,-0.3157579987980652,-0.3157579987980657,0.2109458997770532,-0.21094589977705586,0.12225708964389312,0.12225708964389442
GE,-0.20895677006241786,-0.20895677006241814,-0.03750928685842561,-0.037509286858423724,0.3291885170013125,-0.32918851700131146,-0.20772103916618126,-0.20772103916617923,-0.12473572136378933,0.12473572136377102,-0.13177848618371293,0.13177848618371393,0.37032976534557316,-0.37032976534557466,0.0958837444111969,0.09588374441119682,0.16159750952389443,-0.16159750952388097,-0.313114770609901,-0.3131147706099205
ITW,-0.23683743114476377,-0.23683743114476383,-0.15873716542261268,-0.15873716542261213,0.02668275619522017,-0.026682756195218597,0.0061367246305413185,0.006136724630542576,0.16773569463538823,-0.1677356946353962,-0.11566660248206402,0.11566660248206519,0.4711388731958782,-0.47113887319588077,-0.023340089689782805,-0.023340089689784457,0.38982500807114967,-0.38982500807113735,0.04434809950540655,0.044348099505374966
LMT,-0.23463143238220363,-0.23463143238220333,0.5016335606995694,0.5016335606995679,0.15037371955845144,-0.15037371955844656,-0.12893802260896078,-0.1289380226089663,0.16546435595846096,-0.16546435595844602,-0.040679992382541004,0.04067999238254179,0.14778151124698524,-0.1477815112469881,-0.029545845661806715,-0.029545845661810666,-0.24443683773503175,0.24443683773503275,0.2063481958554265,0.2063481958554212
RTX,-0.1950545015553202,-0.19505450155532078,-0.17914428831869667,-0.17914428831869583,0.4785158066735996,-0.4785158066735967,-0.06661444949022283,-0.06661444949022513,-0.21920480709579665,0.21920480709578433,0.19853628867167994,-0.1985362886716811,0.10837653887485689,-0.10837653887485701,-0.26405897114758853,-0.26405897114758287,0.03248798330826935,-0.03248798330826179,-0.1626367560348488,-0.1626367560348727
MMM,-0.15122713085189507,-0.15122713085189468,0.30236292423137484,0.30236292423137495,0.04099130631700364,-0.040991306317003755,0.25636282474555383,0.2563628247455604,-0.0655843323136722,0.06558433231366402,-0.338184242782949,0.33818424278294923,-0.09048185463188983,0.09048185463189408,0.28270906024844816,0.2827090602484515,0.15715492839837672,-0.15715492839836065,-0.29466234038922895,-0.29466234038926686
FDX,-0.14718376525481702,-0.1471837652548172,-0.22701732545576053,-0.22701732545576087,0.13744787058982538,-0.1374478705898268,0.4257294128006301,0.42572941280063104,-0.07369106708653751,0.07369106708654603,-0.14313264913859855,0.14313264913859947,-0.0612688972010362,0.061268897201036863,0.4097000351093949,0.40970003510939446,0.16417242272758,-0.1641724227275742,0.04674091997577712,0.04674091997577174
BA,-0.25021301426629783,-0.2502130142662978,0.14512079834321834,0.14512079834321778,0.16973245928974093,-0.16973245928973685,-0.14172415945884032,-0.14172415945883945,0.05430390887467736,-0.05430390887469117,-0.40454085236553594,0.40454085236553605,-0.09999635004137664,0.09999635004137467,-0.31022901706017897,-0.3102290170601803,-0.155877310210504,0.15587731021050194,-0.26513636421898035,-0.2651363642189607
ADBE,-0.4078119661962453,-0.4078119661962454,-0.08763011248226303,-0.08763011248226343,0.23022199657279296,-0.23022199657279074,-0.0881380856160774,-0.08813808561608524,0.03698125909881518,-0.0369812590987928,0.05756592684308231,-0.057565926843081774,-0.28821847844923054,0.2882184784492308,0.3088764775116368,0.3088764775116326,-0.2039098012465857,0.20390980124658908,0.2012576646729894,0.2012576646729843
INTC,-0.2445823345611877,-0.2445823345611878,-0.07205973902546374,-0.07205973902546388,0.2043777070290009,-0.20437770702900165,-0.0893830944762286,-0.08938309447622371,-0.24669348138841246,0.24669348138839056,-0.21485672107505674,0.21485672107505807,0.22423430783554907,-0.2242343078355489,0.14447710525076043,0.14447710525075508,-0.29346503740552304,0.29346503740551394,0.3477496508141997,0.3477496508142055
AMD,-0.12017806511488052,-0.12017806511488047,0.03832579290117132,0.03832579290117257,0.15320871355359172,-0.15320871355359336,-0.2508524635156581,-0.2508524635156674,-0.0043505541352207066,0.004350554135242675,-0.3247200813661531,0.32472008136615477,0.2843642065707886,-0.28436420657079076,0.1046508215274211,0.10465082152741643,-0.38684328519265243,0.38684328519264294,0.22530848988830957,0.22530848988831903
AAPL,-0.2835881254556372,-0.28358812545563666,0.08087459991191695,0.08087459991191681,-0.26577546055146506,0.2657754605514652,-0.12140959069305618,-0.12140959069305651,-0.20782423487316615,0.20782423487315654,-0.1873107609064416,0.18731076090644305,0.16767302003836065,-0.16767302003835804,0.37450795837570905,0.37450795837570416,-0.17656519790541478,0.1765651979054116,0.223244786382965,0.2232447863829818
PYPL,-0.34218768332459204,-0.34218768332459204,-0.3363145050332111,-0.33631450503321014,0.03328644924938941,-0.03328644924938714,-0.19587914321450844,-0.19587914321450897,0.060169784051530104,-0.06016978405153672,-0.05932458549657327,0.05932458549657263,-0.3835172514159738,0.3835172514159772,0.19747460141545428,0.19747460141545692,-0.12617127941954132,0.12617127941954787,0.14554317294110491,0.1455431729410911
MSFT,-0.25714569074464233,-0.25714569074464233,-0.05978892013790372,-0.059788920137902095,0.15375139447127226,-0.1537513944712724,-0.0062070416446528935,-0.0062070416446538155,0.036783988100426476,-0.03678398810042636,0.17170809994371206,-0.17170809994371167,-0.07462521133805948,0.07462521133806409,0.33589607361964646,0.33589607361964346,-0.502362329619837,0.5023623296198313,-0.07087751451697435,-0.07087751451694384
GOOG,-0.24240503642202854,-0.24240503642202826,0.003840315830333732,0.003840315830332954,-0.14540023671829774,0.14540023671830135,-0.20544658011243408,-0.20544658011243783,-4.6779436703899836e-05,4.677943670187019e-05,-0.12382265726486777,0.12382265726486888,-0.03710683544516282,0.03710683544516629,0.4740708463217649,0.47407084632176233,-0.33609059088408444,0.33609059088407894,0.1531877987428305,0.153187798742855
TXN,-0.4879519172698796,-0.48795191726987963,-0.16644048699319344,-0.16644048699319267,0.3074811095603198,-0.3074811095603196,0.2099581330484764,0.209958133048478,0.03622669488696922,-0.03622669488697522,0.029665078642402316,-0.02966507864240316,-0.23286228193080669,0.23286228193081027,-0.01927369843275175,-0.019273698432749748,0.028811974476113552,-0.028811974476115405,0.19481940963021985,0.1948194096302022
ORCL,-0.16379658769669908,-0.16379658769669903,0.23803147773304276,0.23803147773304295,0.38926702107078137,-0.389267021070785,-0.02555039872858728,-0.025550398728590457,0.0714628454882868,-0.07146284548828673,-0.12883653129212766,0.12883653129212866,0.17504055826746895,-0.1750405582674705,0.0411643792064313,0.04116437920642676,-0.43836839342499107,0.4383683934249902,-0.13462434887463243,-0.13462434887459934
NVDA,-0.2023803054988768,-0.2023803054988771,-0.30972285349201345,-0.30972285349201323,0.11270255621697574,-0.11270255621697235,-0.25064900728969014,-0.2506490072897008,-0.30509183035871645,0.30509183035870124,0.0781702953983561,-0.07817029539835556,0.2024508373775994,-0.202450837377599,0.04574581284141635,0.045745812841413346,-0.24326405657788158,0.24326405657786998,0.2934946894466065,0.2934946894466262
FANG,-0.0139140417922877,-0.01391404179228788,-0.14134536259490885,-0.1413453625949084,0.16275686274303597,-0.16275686274303802,0.3001790379619549,0.3001790379619558,0.0919018945532104,-0.09190189455320007,-0.26246996070309303,0.262469960703093,-0.2606408178542709,0.2606408178542675,-0.2807208722849854,-0.2807208722849877,-0.3133951080698559,0.3133951080698503,0.20233600862906612,0.2023360086290725
EOG,0.10076125285142616,0.10076125285142613,0.0879438432782712,0.0879438432782724,0.18182907223672246,-0.18182907223672556,0.20761239674971704,0.2076123967497142,0.1523025807518052,-0.15230258075180408,-0.5734517955189952,0.5734517955189957,-0.037567802286550406,0.03756780228654869,-0.1897201114122129,-0.1897201114122147,-0.11021154578873867,0.11021154578873528,-0.06598218246589131,-0.06598218246588848
LNG,0.06098921623943335,0.060989216239433576,-0.065718883596912,-0.06571888359691033,0.07802084571649053,-0.07802084571650295,0.5649667221596213,0.5649667221596228,0.06070768897311796,-0.060707688973100096,-0.2325430148418444,0.2325430148418444,0.18674983267627424,-0.18674983267627657,-0.2509665999572137,-0.2509665999572107,0.09699733241261527,-0.09699733241261217,0.0407038116288569,0.040703811628841007
OXY,0.0642113105192657,0.0642113105192658,0.1495256648550482,0.14952566485505125,0.197436265855534,-0.1974362658555368,-0.027324433241580882,-0.027324433241593067,0.06911943609746096,-0.06911943609743391,-0.6354564610926431,0.6354564610926438,0.05719334531559103,-0.057193345315590303,-0.033023708628466146,-0.033023708628466035,-0.13386066720867473,0.13386066720867723,-0.05411604870801841,-0.05411604870801992
HAL,-0.011405431397241114,-0.011405431397241017,0.14775978667634887,0.1477597866763488,0.1466469556347689,-0.14664695563477287,0.08737978122192683,0.08737978122192652,0.11539929657381892,-0.11539929657381268,-0.47595364446320976,0.47595364446321037,0.14889674202862208,-0.14889674202862382,-0.2918036369460215,-0.2918036369460243,-0.3160054105923775,0.3160054105923688,0.04322631883241978,0.04322631883242618
SLB,0.005025119807523698,0.005025119807523833,0.011523787607100202,0.011523787607100643,0.018265678184275123,-0.018265678184278857,0.35994722999036327,0.359947229990367,0.07187547229584292,-0.07187547229584351,-0.3624049012304626,0.3624049012304632,0.16867718353211175,-0.16867718353211145,-0.22108287509793043,-0.2210828750979336,-0.389821595360425,0.3898215953604266,-0.06443915769145882,-0.06443915769146216
COP,-0.09081480588434998,-0.09081480588435001,-0.12368138059980008,-0.1236813805998,0.06330692558628287,-0.06330692558628413,0.19098147802676227,0.19098147802675133,-0.043997870649253236,0.043997870649264734,-0.1736196386716794,0.17361963867167932,0.14164559597739665,-0.14164559597739992,-0.44061196434888983,-0.44061196434889116,-0.3085639725452663,0.308563972545272,-0.3073763176537702,-0.3073763176537717
DVN,0.04581462785097214,0.04581462785097185,-0.17449046291120182,-0.17449046291120215,0.12788679715314186,-0.12788679715314344,0.4800569154987525,0.48005691549875895,0.21903990803336165,-0.2190399080333556,-0.24656279782456658,0.24656279782456664,-0.20867230609787474,0.20867230609787166,-0.19631388525042862,-0.1963138852504298,-0.07585000450606066,0.0758500045060539,0.15503622990581759,0.15503622990582358
XOM,-0.17102527248679616,-0.171025272486796,-0.120669652759111,-0.12066965275911239,-0.2046834468624679,0.20468344686246961,0.2277015464105824,0.22770154641058105,-0.29680997518357416,0.2968099751835701,0.21368516851776442,-0.21368516851776542,0.11836843011701262,-0.11836843011700926,-0.1830750395001736,-0.18307503950017215,-0.40976692036726237,0.4097669203672688,-0.11511683821219762,-0.11511683821220758
CVX,-0.19193177615103044,-0.1919317761510305,-0.10303525898037491,-0.10303525898037584,0.06859789298437108,-0.06859789298436852,0.13762481201095253,0.13762481201095417,-0.35494372782400974,0.3549437278239938,0.1894187672889205,-0.1894187672889205,0.29430793993514953,-0.294307939935153,-0.3010498477586554,-0.30104984775865723,-0.2358097481396921,0.23580974813969208,-0.1848803340609068,-0.18488033406090118
AMT,-0.33550675012351605,-0.33550675012351566,0.2344913189104801,0.2344913189104782,0.08273481271960088,-0.08273481271960258,0.29740954933209696,0.2974095493321047,0.17854239705518188,-0.1785423970551746,0.3264525915071396,-0.32645259150713957,0.27253521330325203,-0.2725352133032523,-0.013387874465526639,-0.013387874465527754,-0.03502393428770332,0.03502393428769472,0.15172843179057188,0.15172843179060005
PLD,-0.3843057525153681,-0.3843057525153682,0.01833539534286373,0.01833539534286269,0.3225078335322592,-0.3225078335322597,0.09903312898241833,0.09903312898243076,0.22414363078823418,-0.22414363078823668,0.30145766766271215,-0.3014576676627123,-0.1334213601457199,0.13342136014571865,0.09324503751407008,0.09324503751406957,-0.14349709735256003,0.14349709735256644,-0.22349414445836668,-0.223494144458362
EQIX,-0.18002395033515312,-0.1800239503351523,0.027443391232657995,0.027443391232656256,-0.5090340565145095,0.5090340565145062,0.2186138715525691,0.2186138715525808,0.05268486471875395,-0.0526848647187598,0.005277226984838732,-0.005277226984837952,0.21450634238368024,-0.2145063423836777,0.24569062019352272,0.2456906201935214,-0.16621054378283884,0.16621054378283828,-0.1520664372009417,-0.15206643720092272
SPG,-0.09294907932937325,-0.09294907932937313,-0.15446492745186802,-0.15446492745186866,-0.23553398827479563,0.23553398827479985,0.24990199510646185,0.24990199510646258,-0.4166430923226252,0.41664309232261837,-0.1838482756356925,0.1838482756356935,-0.2567285413946104,0.2567285413946055,-0.016092121966317468,-0.01609212196632311,-0.010210339665329481,0.010210339665320008,-0.27551657268095864,-0.27551657268091706
O,-0.10309085636698613,-0.10309085636698638,-0.40175333185148726,-0.4017533318514862,0.0809316169102041,-0.08093161691020731,0.22345002465028532,0.22345002465028507,0.11408582341331451,-0.11408582341330342,0.40983414713709393,-0.4098341471370943,0.1664190289223569,-0.16641902892235855,-0.14967288756422792,-0.14967288756422972,0.19759801953731715,-0.19759801953731912,0.03694385605225642,0.036943856052263135
AVB,-0.19142658757483313,-0.19142658757483297,0.020802231753740935,0.020802231753742337,0.1920480959872641,-0.1920480959872677,0.2612169973653159,0.26121699736531895,0.19675833199814133,-0.19675833199814166,0.2876516492504283,-0.28765164925042835,0.1832826740945359,-0.183282674094537,-0.04931566440237353,-0.04931566440237462,-0.025566815143382268,0.025566815143390702,-0.44684537582500305,-0.4468453758249891
WELL,-0.2329712823316598,-0.2329712823316593,-0.23204241900288763,-0.2320424190028864,-0.3497550287402014,0.3497550287402011,0.35469477160501817,0.35469477160501955,0.07035990889510636,-0.07035990889506595,-0.24808471815401606,0.24808471815401595,-0.1301997054970184,0.13019970549701848,-0.20291957460769747,-0.2029195746076998,-0.015767074554708795,0.015767074554703615,-0.13736911729811688,-0.13736911729808626
VICI,-0.38910026537335307,-0.3891002653733527,0.07299158368916418,0.07299158368916411,0.05771705840471566,-0.0577170584047148,-0.312819679748344,-0.31281967974836977,-0.10813042931492035,0.1081304293149857,0.1162506790564883,-0.11625067905648942,0.1656217855820447,-0.16562178558204335,-0.3204490428891831,-0.3204490428891808,0.29167078215107767,-0.2916707821510835,-0.04110208139066685,-0.04110208139066222
DLR,-0.23737080121856413,-0.23737080121856355,0.34304488178069265,0.34304488178069364,0.0686979476378008,-0.06869794763780399,-0.17206408674115978,-0.17206408674114376,0.20997320728475674,-0.20997320728478705,0.22487156981208808,-0.22487156981208767,0.34283478017699465,-0.3428347801769923,0.1140652568664881,0.11406525686648569,-0.20860204391028306,0.20860204391028314,-0.15143480816324587,-0.15143480816321972
EQR,-0.21454127376601376,-0.21454127376601348,0.07677819623691194,0.07677819623691202,0.06706447404142168,-0.06706447404142607,0.334173090435648,0.33417309043565585,0.2812405995761973,-0.28124059957619374,0.2468256947935626,-0.24682569479356256,0.12619886946716546,-0.1261988694671637,0.15213487983249968,0.15213487983249938,-0.08138445193004056,0.08138445193005008,-0.38235330336091666,-0.382353303360901
CHTR,-0.22537900393621654,-0.22537900393621674,-0.06270086975044402,-0.06270086975044296,0.19680012439363812,-0.196800124393633,-0.04449059850253253,-0.044490598502513745,0.3980032217092523,-0.3980032217092948,-0.12138792226327058,0.12138792226327019,-0.40205154271059784,0.40205154271060217,0.26250965901572876,0.2625096590157304,0.0033169988526996186,-0.0033169988526980682,-0.02922061745619654,-0.02922061745621426
T,-0.25383578348820846,-0.25383578348820773,0.08292877899263874,0.08292877899263863,-0.22434341288517443,0.2243434128851688,0.2505701219836786,0.2505701219836714,-0.11039456401652023,0.11039456401652666,-0.37658066698392506,0.3765806669839255,-0.21553339010923708,0.21553339010923822,0.11959456718924907,0.11959456718925063,0.24930417846125436,-0.24930417846124828,-0.19663373321476157,-0.19663373321477418
NFLX,-0.03188190334007344,-0.03188190334007377,-0.310515944587607,-0.3105159445876064,0.10507715647909915,-0.10507715647910064,0.030461740135184674,0.03046174013518453,0.33111046621227536,-0.33111046621226403,-0.019407101496929886,0.019407101496930625,0.1375879344288169,-0.1375879344288121,0.4916658425460587,0.4916658425460598,-0.0858788427528406,0.08587884275284687,-0.1119936314581527,-0.11199363145814256
META,-0.2482393310819301,-0.2482393310819301,-0.2476582023430451,-0.24765820234304473,0.076187922635985,-0.07618792263598556,0.16085549125008988,0.16085549125008344,-0.07532281057032678,0.07532281057033002,-0.08105841173572567,0.08105841173572653,0.14779223519559298,-0.1477922351955914,0.25380516135269215,0.2538051613526899,-0.3980991545461711,0.3980991545461655,0.29728273953633727,0.2972827395363478
TMUS,-0.1664493595327832,-0.1664493595327837,-0.3722764169496876,-0.3722764169496878,0.35163822378902543,-0.3516382237890283,0.19188360534312046,0.19188360534311336,0.04523623801645855,-0.04523623801643871,-0.07833802230349393,0.07833802230349457,-0.13119890276302473,0.1311989027630229,0.11989871298160269,0.11989871298159961,0.2193462205899402,-0.2193462205899463,0.29214951779695814,0.2921495177969482
CMCSA,-0.33171277248811404,-0.33171277248811376,0.023363033883723374,0.02336303388372321,-0.014137689368863794,0.014137689368862892,-0.24800058590676677,-0.24800058590676935,-0.18534094647056493,0.1853409464705588,-0.04899399654064124,0.0489939965406421,-0.2786743727461065,0.27867437274610823,0.4138964151526781,0.4138964151526729,0.12941005529460886,-0.1294100552946031,-0.1588972979523299,-0.158897297952337
VZ,-0.09604156230233452,-0.09604156230233435,0.047286585933795214,0.04728658593379638,0.22890340293929923,-0.2289034029393072,0.420822816679669,0.42082281667966054,-0.27211473154115406,0.2721147315411794,-0.11639117085041116,0.11639117085041101,-0.07779650817976048,0.07779650817976154,0.12247946742471734,0.12247946742472171,0.29033934472486833,-0.2903393447248629,-0.25711398773954297,-0.25711398773954797
DIS,-0.1744524128233851,-0.1744524128233846,-0.05438322437369998,-0.05438322437370094,-0.39194630618426457,0.39194630618426785,-0.1366255648507592,-0.13662556485076421,-0.27278268791126564,0.27278268791126237,-0.39939967543156246,0.39939967543156263,-0.18806431367495177,0.18806431367495235,0.10242053020435443,0.10242053020435701,-0.09637910118383285,0.09637910118384199,0.07240711895409478,0.07240711895407366
FOXA,-0.18379944981359775,-0.1837994498135982,-0.45201522442954745,-0.45201522442954684,0.14016832151981862,-0.1401683215198164,0.13939695348063633,0.13939695348065392,-0.058248587816316685,0.05824858781628052,0.042838654088216056,-0.042838654088216944,-0.0906983899736915,0.09069838997369228,-0.21003950806611008,-0.21003950806611052,-0.3400530573661946,0.34005305736619734,-0.22274291717471587,-0.2227429171747187
UNH,-0.19858104771391102,-0.19858104771391122,-0.3760639896236685,-0.37606398962366727,0.11426217970649473,-0.11426217970649484,0.12264539815594351,0.12264539815593536,0.0805621760559592,-0.08056217605594404,0.24784623678203585,-0.2478462367820355,0.33671511070561994,-0.3367151107056185,0.11111224835840841,0.1111122483584067,0.2878538999621399,-0.2878538999621428,0.12059360374003962,0.12059360374002387
PFE,-0.32654321051023455,-0.3265432105102346,0.2269420155227964,0.22694201552279458,0.20868258498838194,-0.20868258498837503,0.05652179756351623,0.05652179756352373,0.4530154768252933,-0.45301547682527815,-0.05459717043005617,0.05459717043005555,-0.05991132320386079,0.0599113232038644,0.2166451507204435,0.21664515072045154,0.15574457088377464,-0.1557445708837692,-0.11017706559068609,-0.11017706559068081
GILD,0.01426350057565017,0.014263500575650302,0.2617357472237256,0.2617357472237243,0.010550211347763346,-0.010550211347762652,-0.022259219348068564,-0.022259219348056188,0.08733015260024088,-0.08733015260027122,-0.5252553091871415,0.5252553091871418,-0.16449108641471702,0.16449108641471763,0.14449832867117993,0.14449832867118312,0.31430887813206876,-0.3143088781320623,0.020912212157951585,0.02091221215794558
ABBV,-0.08545607527971874,-0.08545607527971809,0.4094285907166401,0.4094285907166385,-0.2510001363667072,0.2510001363667074,0.12478382549122853,0.12478382549124152,-0.03157681823361912,0.03157681823359254,-0.4150787549597791,0.41507875495977953,0.08686620544973002,-0.08686620544972945,-0.03790293549374819,-0.037902935493746785,0.06483106861457658,-0.06483106861457837,0.2449908382910218,0.2449908382910176
ISRG,-0.2697321305891783,-0.2697321305891783,-0.2178917548276202,-0.21789175482762246,-0.1685529225347213,0.1685529225347263,-0.0901297604718431,-0.09012976047184881,-0.23780524279381457,0.23780524279380075,-0.3205134275774216,0.3205134275774215,0.04203544973703025,-0.042035449737030176,-0.0023413223785299455,-0.002341322378524751,0.23658644570085707,-0.23658644570084744,-0.3552583589673374,-0.3552583589673436
HCA,-0.1175373810834613,-0.11753738108346139,-0.33041559123437303,-0.3304155912343751,-0.31934028412433435,0.319340284124343,-0.02030405318937102,-0.020304053189360346,0.22262779270533126,-0.22262779270534463,-0.14125106748764124,0.14125106748764088,-0.31957763757442537,0.3195776375744225,-0.19702460491894544,-0.19702460491894627,0.15772955699517693,-0.15772955699518426,-0.19818641929883316,-0.19818641929881126
LLY,-0.1533797365765962,-0.1533797365765957,0.4031717049390058,0.403171704939007,0.0918914828333934,-0.09189148283339481,0.08772312256220254,0.08772312256219562,-0.2857795154964404,0.28577951549645053,-0.2921923968830086,0.2921923968830101,0.1600386629768056,-0.1600386629768093,0.0942062511167304,0.09420625111672716,-0.08137434049727442,0.08137434049727867,0.2993869384810109,0.29938693848098863
MRK,-0.09825158681046421,-0.0982515868104641,0.1092350415204354,0.10923504152043484,-0.01926274663853897,0.019262746638541554,-0.03024338733324452,-0.030243387333237354,0.09561076526431478,-0.09561076526433528,-0.05268950666505083,0.052689506665050685,0.4918698271452264,-0.49186982714522326,-0.04640162015777943,-0.04640162015777514,0.43226090502330305,-0.4322609050233048,0.18512829535234987,0.18512829535233197
AMGN,-0.35324555366419896,-0.3532455536641986,0.2918336824062464,0.29183368240624774,0.1412354965932428,-0.14123549659324044,-0.36823682557862086,-0.36823682557860626,0.07362222342979492,-0.07362222342985124,-0.23134835640281168,0.23134835640281312,0.02799343634598446,-0.02799343634599445,-0.2324968147668941,-0.2324968147669014,-0.04406433616273466,0.04406433616274088,0.13704924133255056,0.1370492413325183
JNJ,-0.33930187661156314,-0.33930187661156275,0.2646273291876053,0.2646273291876039,-0.010038700831658079,0.010038700831661702,0.19116984090645123,0.19116984090645914,0.1346678724106361,-0.13466787241064054,0.17355220822526185,-0.17355220822526157,0.17422273784461276,-0.17422273784461378,0.12147434572267832,0.12147434572267832,0.31010439796670514,-0.3101043979667133,0.29777476061568137,0.29777476061568153
LULU,-0.16573665239578184,-0.16573665239578195,-0.03718165105933179,-0.037181651059332466,0.062075279939617686,-0.062075279939615625,-0.3491856650756649,-0.34918566507565574,0.2074162129041369,-0.20741621290415233,-0.4074169722747297,0.4074169722747299,-0.13502294565156914,0.13502294565156747,-0.0894250069214653,-0.08942500692146416,0.12886946003307984,-0.12886946003307395,-0.3058095447916616,-0.30580954479163863
TSLA,-0.09923979817156643,-0.09923979817156654,-0.2599766422119452,-0.25997664221194455,0.029498563053059815,-0.02949856305306172,-0.2252906950626144,-0.2252906950626237,-0.4031747273485415,0.40317472734856075,-0.12437781332939829,0.12437781332939803,0.07124771683857324,-0.07124771683857342,-0.19800458371818938,-0.1980045837181901,0.009805479176827638,-0.009805479176844193,0.3854084125805752,0.3854084125805886
TGT,-0.21487030237677118,-0.21487030237677077,0.0826510333230196,0.08265103332302032,-0.1453454396707367,0.14534543967073751,-0.4300489565795956,-0.43004895657959225,0.009576296885119113,-0.009576296885147901,0.16807605646391524,-0.16807605646391524,-0.27801162085790776,0.2780116208579037,0.08317936995966656,0.08317936995966531,-0.08713517017705451,0.08713517017706779,-0.34754724130636633,-0.347547241306376
MCD,-0.17976586146283935,-0.1797658614628393,-0.3820366842145868,-0.38203668421458825,-0.335290867465294,0.33529086746529807,-0.19773411419332948,-0.19773411419332845,0.1770499947909215,-0.17704999479092717,-0.023238757714441224,0.023238757714440676,-0.07297665692491866,0.07297665692491594,-0.20113176017213058,-0.20113176017212764,0.3013731819631715,-0.3013731819631698,0.04148913734144183,0.041489137341426216
SONO,0.05481915428417542,0.05481915428417522,-0.06438159513239572,-0.06438159513239357,0.20971586115146967,-0.20971586115147195,0.011327106982200342,0.011327106982208473,0.3872593407203348,-0.3872593407203325,-0.2570725064614732,0.25707250646147467,0.20231852399299569,-0.20231852399299627,0.2851782440253804,0.2851782440253792,0.2582392814892118,-0.25823928148922426,0.2091358689631628,0.2091358689631941
LOW,-0.3017714476155656,-0.3017714476155659,-0.2398743174257566,-0.2398743174257564,0.1882044825689858,-0.1882044825689801,-0.08972445698143257,-0.08972445698143137,0.3512516289514654,-0.35125162895145834,-0.070940603743417,0.07094060374341649,-0.4042183747312908,0.4042183747312918,0.052720600034438056,0.05272060003443902,0.008504710633665901,-0.008504710633659818,-0.1151882696369934,-0.11518826963700263
TJX,-0.1483675299102443,-0.14836752991024402,-0.018920222562177614,-0.01892022256217798,-0.12780292020951786,0.12780292020951534,-0.07163664980466566,-0.07163664980467659,-0.19262020630013965,0.1926202063001618,0.015542633679315604,-0.015542633679315082,0.10764398748483889,-0.10764398748483824,0.2676084831772407,0.26760848317724256,0.25316662605517665,-0.25316662605516077,-0.5210803383761343,-0.5210803383761476
SBUX,-0.3790711713098201,-0.3790711713098198,-0.22051892539636023,-0.22051892539636023,-0.10365827864213005,0.10365827864213044,-0.06923524062323153,-0.06923524062322507,0.2792758029234725,-0.27927580292346804,0.03135109937456539,-0.03135109937456641,-0.4227849217446397,0.4227849217446378,-0.15121199696891582,-0.15121199696891174,-0.07021529923675371,0.07021529923676018,0.08134913330353012,0.08134913330349287
HD,-0.337936947541801,-0.33793694754180104,-0.1420021023958734,-0.14200210239587588,-0.029633611520839386,0.0296336115208461,-0.10139589508867118,-0.10139589508866159,0.32292888965642086,-0.32292888965642225,0.15018625752578194,-0.15018625752578194,-0.3713330465875462,0.37133304658754457,0.20058774130396195,0.20058774130395987,-0.04287373904087414,0.04287373904087633,-0.2183436128115366,-0.21834361281153397
NKE,-0.2304602377095669,-0.2304602377095668,-0.28207525604179967,-0.28207525604180106,-0.32856475856329764,0.3285647585633016,-0.35243906862598845,-0.35243906862598534,-0.14166107277082238,0.141661072770807,-0.20510141633695325,0.20510141633695295,0.029467028643512295,-0.029467028643512066,-0.02698260855686333,-0.026982608556857003,0.266638314124775,-0.2666383141247544,0.018075482764827594,0.01807548276480072
